digraph Tree {
node [shape=box, style="filled, rounded", color="black", fontname=helvetica] ;
edge [fontname=helvetica] ;
0 [label="sex <= 0.5\ngini = 0.473\nsamples = 1045\nvalue = [643, 402]\nclass = died", fillcolor="#e5813960"] ;
1 [label="pclass <= 2.5\ngini = 0.397\nsamples = 373\nvalue = [102, 271]\nclass = survived", fillcolor="#399de59f"] ;
0 -> 1 [labeldistance=2.5, labelangle=45, headlabel="True"] ;
2 [label="gini = 0.132\nsamples = 197\nvalue = [14, 183]\nclass = survived", fillcolor="#399de5eb"] ;
1 -> 2 ;
3 [label="gini = 0.5\nsamples = 176\nvalue = [88, 88]\nclass = died", fillcolor="#e5813900"] ;
1 -> 3 ;
4 [label="age <= 9.5\ngini = 0.314\nsamples = 672\nvalue = [541, 131]\nclass = died", fillcolor="#e58139c1"] ;
0 -> 4 [labeldistance=2.5, labelangle=-45, headlabel="False"] ;
5 [label="gini = 0.475\nsamples = 36\nvalue = [14, 22]\nclass = survived", fillcolor="#399de55d"] ;
4 -> 5 ;
6 [label="gini = 0.284\nsamples = 636\nvalue = [527, 109]\nclass = died", fillcolor="#e58139ca"] ;
4 -> 6 ;
}